1.327805858576444793e-03
3.131551888625353636e-02
1.409996836649181698e-02
7.316165373501397687e-03
1.210503439067961082e-02
7.115755602982247463e-02
-1.396844980807594380e-02
-4.427565830558223559e-02
-4.589257731002310131e-03
3.533982500031725843e-02
-4.646181418033153328e-03
4.285916739846335616e-02
-5.351637419821063564e-03
7.026997959868896970e-02
1.173063812095235040e-02
4.195186668532900620e-02
-2.625783335432155252e-02
-7.647663677990961840e-03
3.532446794067793140e-03
-7.372521610387824421e-03
1.845104495583224993e-02
-4.121621848200773819e-02
7.372201982644399111e-03
5.796943390270947218e-03
2.142185995426015063e-03
3.437834582047565729e-02
-3.511260343939456158e-02
1.113365507377436607e-02
-4.281317660105744133e-02
4.542902556753850192e-03
-2.180653710113467439e-02
-3.917606981613029268e-03
2.443114722998234942e-02
-3.162347563550326878e-03
1.005604577308016889e-02
-4.702175857536209963e-04
-2.836997580916029993e-02
-2.298579167886984770e-02
1.323078557376315134e-01
-3.509107760998665150e-03
-1.795735886862800598e-02
1.112947851007590853e-02
2.730280448982371540e-03
-7.487664430753139533e-03
-1.604555075416360527e-02
-3.140844599647891078e-03
3.516035865703199398e-02
2.641140529165304437e-02
-8.279479006355077234e-03
-1.013559251302362588e-02
-1.690706219273194200e-02
1.307089721809708699e-02
1.379398167328864735e-02
1.432964032808236449e-02
-1.101336237076713104e-02
-1.759277478086169674e-02
-1.391747865363014529e-02
8.711626867737585003e-03
1.314759101086058861e-02
1.901431795433360453e-02
-5.515080535648897962e-03
8.243609738015902910e-02
-4.087213997185086545e-02
9.610943432471301656e-04
1.170813689405969700e-02
-2.572978707226300510e-02
-1.200110835148247845e-02
3.056019656361967478e-03
1.875762670308770558e-02
2.579830426579882499e-03
-2.724063031678194014e-03
-4.129946446658476489e-03
-6.091714435557170002e-03
-1.946685955525638209e-02
-7.070521138752020041e-03
2.029697975128998480e-02
-2.181937405068382768e-02
-8.304767079893951923e-03
-1.143588469207399427e-01
-3.363030571023360726e-02
9.116406767818758736e-03
7.475802854007024961e-03
1.662216026693170458e-03
-7.753412310486389181e-02
-4.130160132418713922e-03
2.824828273287013219e-02
-1.034614785045065259e-02
-1.588284830382757223e-02
-4.174800329222004905e-03
2.578474808288129007e-03
6.225840736704154124e-03
-2.347501095060379461e-02
-6.452091511044612086e-03
-3.003317149101999983e-02
5.505059848187382823e-03
-1.054361292355141498e-02
-1.265679851221772692e-02
7.163363028379177329e-03
-9.678927716547875218e-03
2.017825641035838561e-03
3.460713935088909066e-02
1.375992396969164498e-03
-7.036853624549420372e-02
-5.424116447629615673e-02
5.450944445892009181e-03
-1.066218209223538174e-02
2.446490029834799077e-03
1.475352775646120336e-03
-1.856874408280577773e-02
1.486973769092306275e-02
4.207454898722401415e-03
-3.243026926696038030e-03
-1.249261202299801685e-02
9.927454213392250537e-03
-4.210987254650404299e-02
2.968571225487715709e-02
3.424719485607027793e-03
-3.027299510674177907e-02
3.902609234800984671e-03
2.555553463832783284e-02
1.965817653135031040e-02
2.585845726566461319e-02
-3.821099529063826800e-02
1.034379714900387028e-04
-6.130681420408108651e-02
5.139514055713277629e-02
-1.891282643638922401e-02
-2.224458530282383273e-02
-1.134954478687561635e-02
-1.638043681277214642e-02
-5.122495918784757823e-03
2.983008074649062466e-02
-4.084851139627063837e-03
-3.059698017047672927e-02
-1.848364173711898508e-03
-9.174521655797580888e-03
-2.717073886793310369e-02
-5.198729268560624284e-03
-4.321273489755576847e-03
-1.247459639690329421e-02
1.451933413549163880e-02
-1.937772930566247775e-02
1.030380127265750380e-02
1.319520125779110806e-02
-1.596299234586149446e-02
-2.667162695416273877e-02
-3.312809209554210682e-03
2.296655975403997380e-02
-3.588577252733715639e-02
-3.501156427634128515e-02
-3.799929212235671205e-02
2.792356999555452648e-02
1.412997030330249634e-02
1.291452915338022096e-02
-4.448762073812100731e-02
4.483088418554529581e-02
-2.965133728449126718e-02
3.477530167059739163e-02
-1.541369017366602499e-02
5.453929769184759357e-02
1.863010634342913974e-02
-3.708991618390126456e-03
-3.381507642673910879e-02
-1.263662978408515956e-02
3.282133810130807156e-02
2.197639996502421394e-02
1.158118005100524685e-02
4.509854290450121539e-02
-1.413099439162783348e-02
-2.106176954436875942e-02
-2.711895509667601109e-02
-4.874421682396706812e-02
-1.571368686719887275e-02
8.476401227474736691e-03
-2.150631156371657447e-03
-1.010746726992409064e-03
-1.304960947315054152e-02
2.612415096101673370e-02
4.440479899128152788e-03
1.108597854536595706e-02
-1.418697325393494715e-03
-5.862802778787304901e-03
-8.567593402421771337e-03
2.690106238638427863e-02
-6.256203663708057375e-03
1.406069186419633792e-02
1.480786401363415675e-02
-1.262638471696098975e-02
-1.639631934341604855e-02
2.969797357353481937e-02
4.990011860706452217e-03
-1.060600343112068529e-02
-8.967377129368540520e-03
4.050564690889110753e-02
-2.397199401288769172e-03
9.370380237041578408e-03
3.306545165976745165e-02
-1.306256801061736819e-02
2.150218908027982587e-02
1.922976391953770681e-02
7.077735038036719536e-03
3.336289563535193431e-02
-2.163625952115116879e-02
2.889373124655198258e-02
3.251887501828381547e-03
-3.219252684365906531e-02
4.815166362059082605e-02
-1.927261531279293727e-02
1.548953325960661896e-02
6.345141424239966396e-03
-9.890034398716381764e-03
1.286650292598855855e-02
2.192675551343938045e-02
4.938466995568598777e-02
-2.563501548174570641e-02
-3.836163131577714075e-02
3.530909348909271050e-02
-9.280281007332141785e-02
4.035497066448603259e-02
-1.631091241735753081e-02
9.881438550023813154e-04
-2.326471831176692671e-03
1.975383867553720529e-02
7.498416787976733278e-02
-4.724778276263563032e-02
-1.526590932560223726e-02
-4.484101637274946241e-03
1.548759542029858743e-03
2.865118270086397870e-02
-6.873622900005817160e-02
1.554589812373317718e-02
1.751227400613915297e-02
3.474180239603573417e-02
-1.620756204073805704e-02
-3.363377308971966101e-02
7.564517514367898737e-03
2.829874197382526140e-03
4.824546299210768878e-03
-1.025883555008487262e-02
-1.478827408470654442e-02
3.323653454141793639e-02
-4.339476736527303653e-03
3.152271642359166619e-03
-3.140440797871790757e-02
-2.648047692977089718e-04
-2.563725841956221094e-02
-2.035689181315595425e-02
-1.401218657173007240e-02
4.025477767708555282e-02
-2.488138047907040296e-02
6.656140236766167062e-03
1.420744461386039097e-02
2.467214517727982139e-03
1.383681573046671026e-02
-6.178462892023450087e-02
2.336664445748890939e-03
-4.182616178978613986e-02
2.472589279994297229e-02
-5.076964054110156416e-02
-2.760623887536234680e-02
1.236305538372044037e-02
-2.029694958652049006e-02
-7.733513091916896509e-02
4.246502857543795612e-03
-1.527443653393612162e-02
6.237251823399111994e-02
1.829598976694717105e-02
-2.067474478326865317e-02
-2.698014999542263943e-03
1.647960532699638053e-03
-8.116387651782963619e-03
-4.462602448135935887e-03
5.677524025907576544e-02
6.984489803434306039e-03
-2.013691929283358342e-03
5.574133182973048384e-03
2.431178526737459711e-02
-1.310195880178347330e-02
-5.814976017410309478e-02
6.255641461451947986e-03
4.018999716592875845e-03
-1.554622104640285447e-02
4.176472892518367369e-02
-1.976906088372729769e-02
3.797960304910955043e-02
-1.129022014521839298e-02
4.673526586399649740e-02
-2.747087240751316592e-02
1.148657919537522058e-03
-9.055984693170843203e-03
2.468193182400445565e-02
-1.286506797201688798e-02
4.140602094416895307e-02
-2.327283854816450132e-03
5.625992142816953374e-03
-2.458118141123582720e-02
6.196593058540408872e-03
2.492182631754233033e-02
7.591581707729201656e-03
-4.097737854772238314e-02
5.270370440402405432e-02
2.942253332365945759e-02
3.410211510026355669e-02
-5.137502506428900072e-03
-1.661449605810489186e-02
1.308914307333983347e-02
-1.716382978326677882e-04
-2.993915590442460320e-02
1.201831989345540164e-03
-6.136247167503423861e-02
-1.381114480021407472e-02
3.212611434801528748e-02
1.933121650668792602e-02
5.537758317751285400e-04
-1.543119717011666794e-02
-2.818568194770196614e-02
-4.222061316565828976e-02
8.633372607000762422e-02
2.172971599870366158e-03
3.894551580247673263e-03
-1.814249206269649695e-02
1.241390308050001074e-03
-2.067644270388099489e-03
-7.623659221271918618e-04
-5.941309702293735839e-02
-3.782814974499104643e-02
1.428224832685709086e-02
-1.505711272888191066e-02
1.607386466044908452e-02
-4.734341092954460518e-03
4.738485918203409752e-02
-8.665792503207533914e-02
9.909181027303502753e-03
3.106969387297375384e-03
8.508118585985338655e-03
-2.598945333753337108e-03
-1.415153113146516879e-02
6.348470458082938923e-03
2.800269973575273894e-02
2.489139218491368336e-02
2.104525246280377487e-02
-4.848431568096429195e-02
-1.767933261383932905e-02
1.308306626362685382e-02
-1.958537719350895035e-03
9.841542480072294416e-03
-1.456178375627783725e-02
4.345248925444186033e-02
9.550436700009486829e-03
1.683866049693243452e-02
-6.885183671730955857e-02
1.046184640790378574e-02
4.134498920409368852e-03
5.553983763974329295e-03
-2.740889406007649201e-02
-1.475428230619252497e-02
-7.700931166971593939e-03
1.337899608713276692e-02
7.320466392756319954e-03
-5.164671616891852030e-02
-3.031610268388642161e-03
8.999563654994456596e-02
-7.631640886833606849e-03
-2.789914287475768820e-02
-3.650293251623445978e-02
2.877495466661170870e-02
-7.589852068067884372e-02
1.535241641906455977e-02
-1.133362651595623896e-02
-3.041082618239409480e-02
1.864234708058789755e-03
-7.433180961074259407e-03
2.117760277148433498e-02
-4.272068651734072658e-02
1.667951519179068989e-02
5.939840099646646887e-03
7.027348107455790895e-03
2.810123488536284478e-02
-1.598660843869706763e-02
-2.091975475640812931e-02
-2.947484731400176207e-04
-1.495506167332683566e-02
1.627638539116397706e-02
-1.395344156533068203e-02
-2.709210354426397002e-02
-3.803485018943329223e-03
3.823213989094398357e-02
5.888607054556654202e-02
6.296611656674672153e-02
-1.241239451526244056e-02
-5.572616092125627640e-02
8.661007554512878404e-03
1.220748237740757955e-02
-4.980759873932743415e-02
1.058855549134118251e-02
1.540762587150207481e-02
-1.718126244640517941e-02
-1.500682302167793414e-01
1.166442333705919494e-02
-3.668337039992206061e-02
1.465714146595385216e-02
2.743114935001760707e-02
-9.715778772174662320e-03
-2.628749502139331867e-02
2.665790934500806425e-02
-4.059280586323849027e-03
6.043977246589225111e-02
9.316945419323097166e-03
-2.557134009840449779e-02
6.651700773602607641e-02
-2.264789239246084440e-02
7.383778091038779856e-02
3.041832163175771462e-03
8.408114214296881841e-03
4.403194486368240679e-02
5.631653881228089985e-03
1.896475804503435642e-02
-7.374822906441329262e-02
4.962138528022208041e-03
-3.483872158654309492e-02
-2.359599346731663938e-02
8.785007987045803657e-03
-3.666272552525936396e-03
9.474008063426395121e-04
7.191656605843904648e-02
-1.207600547839048321e-04
-4.819691912964162855e-02
-2.433369681131814302e-02
-2.298388187806881325e-02
-1.107598154846972834e-02
3.810966393097577065e-02
-1.793046288962133958e-02
8.404905331869244600e-02
3.366335979344724227e-02
2.183026743452557913e-02
-3.835684290671893468e-03
2.209488153168753799e-02
-1.108754926438001304e-02
-1.585296858277810209e-02
1.300680130606969402e-02
2.422612657700174560e-02
8.586944646898709080e-04
1.318833232037795039e-02
-2.036992661914236585e-02
-1.047995253027416557e-02
4.324646125110498916e-03
-2.632237367915521431e-02
4.399732189112842522e-03
-3.947476668436943753e-02
-4.475938781161853570e-03
2.294479581032687985e-03
2.960636371125283280e-03
-1.270861850554333601e-02
7.277677565863185927e-02
1.068913815015423187e-02
-4.383004749863495322e-03
6.541814903439073514e-03
-1.211677820793972439e-02
1.398085185042815398e-02
1.879175243545635685e-02
1.939573698530221157e-02
1.160132648717147538e-02
-5.705647409273990021e-03
1.661115761369460000e-02
6.324272186065524239e-04
-2.187643854318336786e-02
-1.852188193408169786e-02
1.387087839253813015e-02
1.624886647694553238e-02
-7.106611762012911629e-03
1.538026308248180429e-02
3.909778050073405530e-03
4.276344672673292567e-03
2.199965132178827859e-02
6.715966054447318478e-03
-1.457275141477637828e-03
-1.035986123548814086e-02
2.010710549223613045e-02
9.676740871681823591e-03
3.061373343577189314e-03
1.321354820832136047e-02
3.922449155078191335e-03
-8.926797613530594588e-03
3.310838905884419103e-03
-2.180937364043121583e-03
-2.882673112143674041e-02
-2.652182498487838658e-02
1.603798189564125537e-02
-3.093713389535758529e-02
1.442291687879577143e-02
-1.117223973433658160e-02
1.657420713486160505e-02
1.071109736805747267e-02
3.212578157843673510e-02
-5.193580732107999816e-03
1.025618412536917013e-03
1.614646706356191383e-02
4.878302630611486279e-02
-7.599639539659631959e-02
-4.416869436851076497e-03
-1.734873055910776717e-03
5.730700087851678219e-03
8.006100927872704387e-03
1.347999766443991679e-02
9.200870360633739767e-03
5.295206945693289868e-02
-1.972448132350190092e-02
2.494406391352397764e-03
-8.760666769389405554e-04
-1.037187093186146131e-02
2.454207440297870996e-02
-9.389818489393610135e-03
1.452524049079374421e-02
8.000108232283257431e-03
8.009706497371127040e-03
-4.370527538572335779e-02
-9.590352463064914443e-03
5.248042367940679992e-02
-3.897361119467394885e-02
7.072724944146727144e-02
6.734317082847745238e-03
-6.152418316591239979e-03
-4.539239164839392604e-03
1.791881702633016035e-02
1.064709858974069272e-02
-3.844622800395651463e-03
-3.030629350254725358e-03
1.323197928207742874e-02
7.008730222681286079e-03
1.209745088101213048e-02
-3.304881785591433016e-03
2.962303201889804252e-03
5.982267378477821446e-03
-7.758002346237153485e-03
3.715663073634493246e-02
-9.947454801976465810e-03
-6.018315095139629457e-03
2.076097892027153891e-02
1.824563797192966033e-02
2.834172795177161350e-02
5.231029472725915591e-03
-1.838751909483042927e-03
-2.895856217660007156e-02
-3.779274083143120862e-03
-5.463136689755256070e-02
2.070376578010140953e-02
1.899440509603079683e-02
-7.859315955195609856e-04
-9.873498365276071193e-03
-1.591875351549582734e-02
5.723961475030233531e-02
-4.030541797767782375e-02
1.538258601700154792e-02
1.322264747598945718e-03
3.515457605133519292e-02
7.906343639638104340e-03
-3.771140544263400229e-02
-1.434321425074222903e-02
-1.018424491051827738e-02
8.240910719584815247e-02
-7.443308954203669246e-03
-2.503229773413735357e-02
2.723610873496802934e-02
-3.360584493523383846e-03
3.120183304926438944e-02
-1.604456572543077816e-02
2.518765889592220614e-02
-2.303304854908455601e-03
-4.345091384930194200e-03
1.382631811163389200e-02
-1.270719962961476199e-02
-5.120831103955573484e-03
2.202026584369136050e-02
-1.554187676216891266e-02
-3.532170265857472596e-02
-1.056317726389167932e-02
1.452862919546525113e-02
-1.214729427535254751e-02
-2.328804833109570857e-02
-2.760060108899526146e-02
-1.113145785168639761e-02
6.257060412673362548e-03
-1.906782110075683906e-02
-3.370445121555502854e-02
-2.953221267310470952e-02
-4.263614332018787062e-02
-5.114903462861165699e-03
8.070071247652164936e-02
8.849313425211996834e-03
1.031266979732432115e-02
2.461123242038002965e-02
1.707128051596614599e-03
1.686950061842992094e-02
4.312028153655647210e-04
-7.968814180545477285e-03
-1.580350295359902015e-03
-1.175420028441089872e-02
1.284352147990732926e-02
8.685452565822766868e-03
-9.997422924375590561e-03
3.501800345929843850e-02
-9.425580163345485818e-03
-2.064381695487024423e-02
-1.249709916740796012e-02
-8.368289990328400818e-02
1.803721574222714660e-02
-4.481668865256835388e-02
3.253533594507836829e-02
9.179199583293865330e-03
4.422613429186061235e-02
-8.905984005019145291e-03
1.648968990857438074e-02
-1.491638515990892713e-02
1.252497493573006236e-02
2.895593398221055648e-03
1.891703645930762831e-02
3.242269576957241412e-03
5.294235786855444603e-02
2.519989097509327605e-02
-9.827940365839327869e-03
3.011872039799020837e-02
-3.468690497793987942e-02
-4.216581698177195026e-02
-3.387240613273555939e-02
6.893692126398959230e-02
1.064213783136285689e-03
-2.552041577794093071e-03
4.858902220865401328e-02
-6.274395134059661261e-03
2.943703008682906595e-03
-1.585431035854973497e-02
9.861483931910375138e-04
-1.515799183508383802e-03
-1.240375140953735821e-02
-2.608987813578596965e-02
-2.666290898524182468e-02
1.011895325792806213e-03
-4.185969276952235252e-02
-1.939569167753609283e-02
-2.922108060831075244e-02
-9.261098441123882157e-04
2.443456090309897855e-02
-8.162589929343273603e-04
-2.148788283071745644e-02
-1.569170462857884599e-02
-5.257557599718165262e-03
7.442618182367458611e-03
-1.595759986363118332e-02
2.679993244653649381e-02
2.566539324232030433e-02
-1.160578504145626938e-03
-1.649304193438418456e-02
-5.004138780557020050e-02
-9.124499654434277060e-03
1.637964302110698350e-02
2.746519604190626133e-03
2.736944657845262040e-03
8.408829974145753255e-03
-2.572409390080885455e-02
4.438077768205314806e-03
4.050621205861940771e-02
1.226176319600787504e-02
-1.763269884228014367e-02
7.374535285407662552e-03
-3.601743119543875798e-02
2.532664881537096888e-02
-3.653394192692506481e-02
1.740490562689819484e-02
2.086461318853855690e-02
1.197034779618292438e-02
7.212021914310403313e-03
-4.063398853169098573e-02
5.673380164813542070e-02
-3.396403886125027617e-03
-2.202902435416461899e-02
2.772012903498397105e-03
1.755181940822391623e-02
-2.262534709199298319e-03
2.698819637796269488e-02
-2.665691677304289631e-02
-5.961029375971508767e-03
-2.115748607240196255e-02
3.110234943051011849e-02
-3.927821464952812973e-03
2.845220982177975796e-02
-2.533940960806300643e-02
1.484904578493130567e-02
4.289629853382687097e-02
-2.220092993824786145e-04
-5.021488535082728466e-02
-5.517855391283341994e-03
-2.484009761062495880e-02
-5.927377434716239735e-03
7.181900240260938491e-03
-7.243494585094706339e-02
-5.043512252572100035e-02
-7.184247759378608982e-04
-1.777814543826263666e-02
-4.951211139714702114e-02
6.358089941171856524e-03
3.882560009296046315e-03
-2.117736301808062840e-02
-6.540590060739451261e-02
-2.161823228488954016e-02
-8.052315144779482667e-03
1.842154983424048069e-03
1.062573653594924353e-02
-1.983144122025588818e-02
-7.561427083969628031e-03
-7.929742490368207886e-03
-1.083277032613069041e-02
1.392166070430356402e-02
-1.263528330950653908e-02
-1.540788469237382510e-02
3.754236622657378813e-02
2.149270482626813947e-03
-2.609559194337344405e-03
2.022912926101663733e-02
-7.644478834842766135e-02
3.921896556793958571e-02
-5.511184973710539850e-03
-1.553735460663942074e-02
1.389296920930293416e-02
3.662397214604739756e-03
3.799134250379161432e-03
-3.801058753773282894e-03
6.340504376454422775e-02
-1.736875279915495868e-02
-1.085295130011390378e-02
-2.434912307338675183e-02
1.443757474075197528e-02
-1.218010836749776945e-03
-3.095625868899412603e-02
-3.856775449634808339e-02
2.332997556795511976e-02
-8.699403085655464142e-04
8.926344890787453468e-03
5.536008612866295288e-03
-4.132984704098358747e-02
-3.628728095310445462e-02
1.217211850506303393e-02
3.004107805427902456e-02
2.256454403434500142e-02
7.882394315873860954e-03
-1.714526644097491993e-03
-4.698100490516088877e-03
6.142524625832718015e-03
5.565177924534352866e-03
-8.629967611127850255e-03
7.393896141840181069e-02
7.832719024844062017e-02
1.010620864395548983e-02
6.045226388764352206e-03
1.515649358851876155e-02
-4.443888175924689404e-02
2.973351780893479165e-02
4.143662767462015506e-02
4.653133952761481090e-03
-7.942745068992496105e-02
2.317642865654108691e-03
2.183368010138135324e-03
3.549814900271257290e-02
-1.515524725136450966e-03
3.397276662522306229e-02
4.292595906070117984e-02
2.096056791917175546e-02
4.026970524537940369e-03
2.610369453667251913e-02
